digraph Tree {
node [shape=box, fontname="helvetica"] ;
edge [fontname="helvetica"] ;
0 [label="s11 <= 47.655\nsquared_error = 4744.361\nsamples = 20631\nvalue = 107.808"] ;
1 [label="s9 <= 9075.705\nsquared_error = 3543.393\nsamples = 14405\nvalue = 135.117"] ;
0 -> 1 [labeldistance=2.5, labelangle=45, headlabel="True"] ;
2 [label="s11 <= 47.385\nsquared_error = 3307.657\nsamples = 13089\nvalue = 141.76"] ;
1 -> 2 ;
3 [label="s11 <= 47.245\nsquared_error = 2993.365\nsamples = 5937\nvalue = 162.019"] ;
2 -> 3 ;
4 [label="s9 <= 9058.025\nsquared_error = 2554.329\nsamples = 2575\nvalue = 174.384"] ;
3 -> 4 ;
5 [label="s12 <= 522.215\nsquared_error = 2652.384\nsamples = 956\nvalue = 185.483"] ;
4 -> 5 ;
6 [label="s2 <= 642.295\nsquared_error = 3075.849\nsamples = 447\nvalue = 175.55"] ;
5 -> 6 ;
7 [label="squared_error = 3172.564\nsamples = 266\nvalue = 185.301"] ;
6 -> 7 ;
8 [label="squared_error = 2588.669\nsamples = 181\nvalue = 161.221"] ;
6 -> 8 ;
9 [label="s4 <= 1401.78\nsquared_error = 2117.763\nsamples = 509\nvalue = 194.206"] ;
5 -> 9 ;
10 [label="squared_error = 1879.375\nsamples = 419\nvalue = 198.578"] ;
9 -> 10 ;
11 [label="squared_error = 2724.479\nsamples = 90\nvalue = 173.856"] ;
9 -> 11 ;
12 [label="s7 <= 554.575\nsquared_error = 2380.723\nsamples = 1619\nvalue = 167.83"] ;
4 -> 12 ;
13 [label="s8 <= 2388.015\nsquared_error = 2508.004\nsamples = 1103\nvalue = 161.567"] ;
12 -> 13 ;
14 [label="squared_error = 2129.0\nsamples = 514\nvalue = 171.475"] ;
13 -> 14 ;
15 [label="squared_error = 2678.318\nsamples = 589\nvalue = 152.92"] ;
13 -> 15 ;
16 [label="s13 <= 2388.015\nsquared_error = 1845.577\nsamples = 516\nvalue = 181.217"] ;
12 -> 16 ;
17 [label="squared_error = 1854.835\nsamples = 329\nvalue = 187.973"] ;
16 -> 17 ;
18 [label="squared_error = 1607.73\nsamples = 187\nvalue = 169.332"] ;
16 -> 18 ;
19 [label="s9 <= 9063.455\nsquared_error = 3122.836\nsamples = 3362\nvalue = 152.548"] ;
3 -> 19 ;
20 [label="s12 <= 521.865\nsquared_error = 3347.379\nsamples = 2229\nvalue = 158.862"] ;
19 -> 20 ;
21 [label="s4 <= 1395.03\nsquared_error = 3304.13\nsamples = 937\nvalue = 150.572"] ;
20 -> 21 ;
22 [label="squared_error = 4161.332\nsamples = 24\nvalue = 199.542"] ;
21 -> 22 ;
23 [label="squared_error = 3216.902\nsamples = 913\nvalue = 149.285"] ;
21 -> 23 ;
24 [label="s14 <= 8142.495\nsquared_error = 3292.752\nsamples = 1292\nvalue = 164.875"] ;
20 -> 24 ;
25 [label="squared_error = 3587.649\nsamples = 897\nvalue = 170.172"] ;
24 -> 25 ;
26 [label="squared_error = 2414.657\nsamples = 395\nvalue = 152.846"] ;
24 -> 26 ;
27 [label="s15 <= 8.419\nsquared_error = 2448.345\nsamples = 1133\nvalue = 140.126"] ;
19 -> 27 ;
28 [label="s3 <= 1587.865\nsquared_error = 2391.811\nsamples = 662\nvalue = 149.998"] ;
27 -> 28 ;
29 [label="squared_error = 2442.181\nsamples = 441\nvalue = 156.465"] ;
28 -> 29 ;
30 [label="squared_error = 2041.362\nsamples = 221\nvalue = 137.095"] ;
28 -> 30 ;
31 [label="s12 <= 522.245\nsquared_error = 2198.285\nsamples = 471\nvalue = 126.251"] ;
27 -> 31 ;
32 [label="squared_error = 2161.86\nsamples = 390\nvalue = 121.285"] ;
31 -> 32 ;
33 [label="squared_error = 1683.246\nsamples = 81\nvalue = 150.16"] ;
31 -> 33 ;
34 [label="s4 <= 1409.915\nsquared_error = 2945.073\nsamples = 7152\nvalue = 124.944"] ;
2 -> 34 ;
35 [label="s9 <= 9064.365\nsquared_error = 3004.061\nsamples = 4713\nvalue = 134.395"] ;
34 -> 35 ;
36 [label="s12 <= 521.605\nsquared_error = 2982.334\nsamples = 3661\nvalue = 140.992"] ;
35 -> 36 ;
37 [label="s9 <= 9054.375\nsquared_error = 2606.278\nsamples = 1883\nvalue = 133.218"] ;
36 -> 37 ;
38 [label="squared_error = 2485.022\nsamples = 1049\nvalue = 142.548"] ;
37 -> 38 ;
39 [label="squared_error = 2511.566\nsamples = 834\nvalue = 121.482"] ;
37 -> 39 ;
40 [label="s7 <= 553.445\nsquared_error = 3248.817\nsamples = 1778\nvalue = 149.224"] ;
36 -> 40 ;
41 [label="squared_error = 2589.919\nsamples = 490\nvalue = 137.78"] ;
40 -> 41 ;
42 [label="squared_error = 3430.697\nsamples = 1288\nvalue = 153.578"] ;
40 -> 42 ;
43 [label="s12 <= 521.605\nsquared_error = 2401.181\nsamples = 1052\nvalue = 111.437"] ;
35 -> 43 ;
44 [label="s9 <= 9068.31\nsquared_error = 1672.807\nsamples = 479\nvalue = 97.23"] ;
43 -> 44 ;
45 [label="squared_error = 1839.55\nsamples = 264\nvalue = 108.148"] ;
44 -> 45 ;
46 [label="squared_error = 1141.959\nsamples = 215\nvalue = 83.823"] ;
44 -> 46 ;
47 [label="s7 <= 554.075\nsquared_error = 2700.264\nsamples = 573\nvalue = 123.314"] ;
43 -> 47 ;
48 [label="squared_error = 2488.19\nsamples = 397\nvalue = 115.937"] ;
47 -> 48 ;
49 [label="squared_error = 2778.975\nsamples = 176\nvalue = 139.955"] ;
47 -> 49 ;
50 [label="s9 <= 9060.855\nsquared_error = 2324.964\nsamples = 2439\nvalue = 106.681"] ;
34 -> 50 ;
51 [label="s12 <= 520.945\nsquared_error = 2610.716\nsamples = 1599\nvalue = 116.547"] ;
50 -> 51 ;
52 [label="s13 <= 2388.155\nsquared_error = 2362.641\nsamples = 296\nvalue = 89.088"] ;
51 -> 52 ;
53 [label="squared_error = 2568.226\nsamples = 178\nvalue = 103.837"] ;
52 -> 53 ;
54 [label="squared_error = 1229.355\nsamples = 118\nvalue = 66.839"] ;
52 -> 54 ;
55 [label="s15 <= 8.459\nsquared_error = 2456.87\nsamples = 1303\nvalue = 122.785"] ;
51 -> 55 ;
56 [label="squared_error = 2450.429\nsamples = 984\nvalue = 128.15"] ;
55 -> 56 ;
57 [label="squared_error = 2114.042\nsamples = 319\nvalue = 106.235"] ;
55 -> 57 ;
58 [label="s12 <= 521.355\nsquared_error = 1242.992\nsamples = 840\nvalue = 87.9"] ;
50 -> 58 ;
59 [label="s9 <= 9067.975\nsquared_error = 932.642\nsamples = 468\nvalue = 79.096"] ;
58 -> 59 ;
60 [label="squared_error = 1024.712\nsamples = 295\nvalue = 84.986"] ;
59 -> 60 ;
61 [label="squared_error = 615.598\nsamples = 173\nvalue = 69.052"] ;
59 -> 61 ;
62 [label="s14 <= 8142.165\nsquared_error = 1413.249\nsamples = 372\nvalue = 98.976"] ;
58 -> 62 ;
63 [label="squared_error = 1633.208\nsamples = 149\nvalue = 112.141"] ;
62 -> 63 ;
64 [label="squared_error = 1073.098\nsamples = 223\nvalue = 90.179"] ;
62 -> 64 ;
65 [label="s9 <= 9080.855\nsquared_error = 1083.641\nsamples = 1316\nvalue = 69.046"] ;
1 -> 65 ;
66 [label="s12 <= 521.935\nsquared_error = 1396.223\nsamples = 488\nvalue = 91.777"] ;
65 -> 66 ;
67 [label="s7 <= 553.475\nsquared_error = 685.375\nsamples = 316\nvalue = 77.965"] ;
66 -> 67 ;
68 [label="s14 <= 8140.76\nsquared_error = 390.007\nsamples = 154\nvalue = 64.649"] ;
67 -> 68 ;
69 [label="setting1 <= -0.001\nsquared_error = 1214.25\nsamples = 4\nvalue = 117.5"] ;
68 -> 69 ;
70 [label="squared_error = 346.889\nsamples = 3\nvalue = 135.333"] ;
69 -> 70 ;
71 [label="squared_error = 0.0\nsamples = 1\nvalue = 64.0"] ;
69 -> 71 ;
72 [label="s20 <= 38.805\nsquared_error = 291.556\nsamples = 150\nvalue = 63.24"] ;
68 -> 72 ;
73 [label="squared_error = 244.689\nsamples = 91\nvalue = 58.516"] ;
72 -> 73 ;
74 [label="squared_error = 276.351\nsamples = 59\nvalue = 70.525"] ;
72 -> 74 ;
75 [label="s4 <= 1407.7\nsquared_error = 637.371\nsamples = 162\nvalue = 90.623"] ;
67 -> 75 ;
76 [label="s9 <= 9075.825\nsquared_error = 614.804\nsamples = 111\nvalue = 97.297"] ;
75 -> 76 ;
77 [label="squared_error = 1173.84\nsamples = 5\nvalue = 142.4"] ;
76 -> 77 ;
78 [label="squared_error = 487.952\nsamples = 106\nvalue = 95.17"] ;
76 -> 78 ;
79 [label="s15 <= 8.441\nsquared_error = 378.559\nsamples = 51\nvalue = 76.098"] ;
75 -> 79 ;
80 [label="squared_error = 296.31\nsamples = 28\nvalue = 85.107"] ;
79 -> 80 ;
81 [label="squared_error = 259.592\nsamples = 23\nvalue = 65.13"] ;
79 -> 81 ;
82 [label="s4 <= 1398.18\nsquared_error = 1707.872\nsamples = 172\nvalue = 117.151"] ;
66 -> 82 ;
83 [label="s3 <= 1585.1\nsquared_error = 2436.165\nsamples = 53\nvalue = 144.717"] ;
82 -> 83 ;
84 [label="s4 <= 1393.295\nsquared_error = 3258.355\nsamples = 22\nvalue = 173.091"] ;
83 -> 84 ;
85 [label="squared_error = 582.188\nsamples = 4\nvalue = 240.75"] ;
84 -> 85 ;
86 [label="squared_error = 2609.719\nsamples = 18\nvalue = 158.056"] ;
84 -> 86 ;
87 [label="s11 <= 47.435\nsquared_error = 875.856\nsamples = 31\nvalue = 124.581"] ;
83 -> 87 ;
88 [label="squared_error = 674.479\nsamples = 26\nvalue = 131.538"] ;
87 -> 88 ;
89 [label="squared_error = 362.24\nsamples = 5\nvalue = 88.4"] ;
87 -> 89 ;
90 [label="s11 <= 47.395\nsquared_error = 894.345\nsamples = 119\nvalue = 104.874"] ;
82 -> 90 ;
91 [label="s14 <= 8150.205\nsquared_error = 881.497\nsamples = 77\nvalue = 113.221"] ;
90 -> 91 ;
92 [label="squared_error = 1651.006\nsamples = 13\nvalue = 148.385"] ;
91 -> 92 ;
93 [label="squared_error = 423.01\nsamples = 64\nvalue = 106.078"] ;
91 -> 93 ;
94 [label="s7 <= 553.525\nsquared_error = 556.007\nsamples = 42\nvalue = 89.571"] ;
90 -> 94 ;
95 [label="squared_error = 142.0\nsamples = 7\nvalue = 65.0"] ;
94 -> 95 ;
96 [label="squared_error = 493.907\nsamples = 35\nvalue = 94.486"] ;
94 -> 96 ;
97 [label="s9 <= 9096.95\nsquared_error = 415.404\nsamples = 828\nvalue = 55.649"] ;
65 -> 97 ;
98 [label="s12 <= 521.445\nsquared_error = 346.448\nsamples = 534\nvalue = 64.277"] ;
97 -> 98 ;
99 [label="s21 <= 23.265\nsquared_error = 186.784\nsamples = 229\nvalue = 53.341"] ;
98 -> 99 ;
100 [label="s20 <= 38.745\nsquared_error = 157.029\nsamples = 126\nvalue = 48.675"] ;
99 -> 100 ;
101 [label="squared_error = 126.674\nsamples = 68\nvalue = 44.132"] ;
100 -> 101 ;
102 [label="squared_error = 140.069\nsamples = 58\nvalue = 54.0"] ;
100 -> 102 ;
103 [label="s2 <= 643.005\nsquared_error = 163.969\nsamples = 103\nvalue = 59.049"] ;
99 -> 103 ;
104 [label="squared_error = 156.694\nsamples = 85\nvalue = 61.153"] ;
103 -> 104 ;
105 [label="squared_error = 78.654\nsamples = 18\nvalue = 49.111"] ;
103 -> 105 ;
106 [label="s15 <= 8.448\nsquared_error = 309.096\nsamples = 305\nvalue = 72.489"] ;
98 -> 106 ;
107 [label="s9 <= 9085.84\nsquared_error = 285.54\nsamples = 236\nvalue = 76.322"] ;
106 -> 107 ;
108 [label="squared_error = 304.001\nsamples = 107\nvalue = 83.785"] ;
107 -> 108 ;
109 [label="squared_error = 185.711\nsamples = 129\nvalue = 70.132"] ;
107 -> 109 ;
110 [label="s21 <= 23.368\nsquared_error = 167.481\nsamples = 69\nvalue = 59.377"] ;
106 -> 110 ;
111 [label="squared_error = 136.787\nsamples = 64\nvalue = 57.797"] ;
110 -> 111 ;
112 [label="squared_error = 119.44\nsamples = 5\nvalue = 79.6"] ;
110 -> 112 ;
113 [label="s9 <= 9118.625\nsquared_error = 159.799\nsamples = 294\nvalue = 39.976"] ;
97 -> 113 ;
114 [label="s4 <= 1413.5\nsquared_error = 112.898\nsamples = 204\nvalue = 45.26"] ;
113 -> 114 ;
115 [label="s9 <= 9102.93\nsquared_error = 87.684\nsamples = 150\nvalue = 48.36"] ;
114 -> 115 ;
116 [label="squared_error = 98.655\nsamples = 64\nvalue = 53.531"] ;
115 -> 116 ;
117 [label="squared_error = 44.808\nsamples = 86\nvalue = 44.512"] ;
115 -> 117 ;
118 [label="s8 <= 2388.045\nsquared_error = 82.08\nsamples = 54\nvalue = 36.648"] ;
114 -> 118 ;
119 [label="squared_error = 48.988\nsamples = 9\nvalue = 47.889"] ;
118 -> 119 ;
120 [label="squared_error = 58.373\nsamples = 45\nvalue = 34.4"] ;
118 -> 120 ;
121 [label="s9 <= 9136.1\nsquared_error = 59.4\nsamples = 90\nvalue = 28.0"] ;
113 -> 121 ;
122 [label="s7 <= 552.72\nsquared_error = 30.022\nsamples = 50\nvalue = 32.76"] ;
121 -> 122 ;
123 [label="squared_error = 3.714\nsamples = 7\nvalue = 25.0"] ;
122 -> 123 ;
124 [label="squared_error = 22.906\nsamples = 43\nvalue = 34.023"] ;
122 -> 124 ;
125 [label="s9 <= 9156.475\nsquared_error = 32.397\nsamples = 40\nvalue = 22.05"] ;
121 -> 125 ;
126 [label="squared_error = 17.282\nsamples = 29\nvalue = 24.448"] ;
125 -> 126 ;
127 [label="squared_error = 17.107\nsamples = 11\nvalue = 15.727"] ;
125 -> 127 ;
128 [label="s4 <= 1415.735\nsquared_error = 1805.028\nsamples = 6226\nvalue = 44.622"] ;
0 -> 128 [labeldistance=2.5, labelangle=-45, headlabel="False"] ;
129 [label="s9 <= 9069.0\nsquared_error = 2310.434\nsamples = 2363\nvalue = 75.587"] ;
128 -> 129 ;
130 [label="s7 <= 552.855\nsquared_error = 2560.237\nsamples = 1661\nvalue = 88.288"] ;
129 -> 130 ;
131 [label="s12 <= 521.025\nsquared_error = 1522.261\nsamples = 679\nvalue = 63.44"] ;
130 -> 131 ;
132 [label="s15 <= 8.468\nsquared_error = 748.314\nsamples = 439\nvalue = 51.144"] ;
131 -> 132 ;
133 [label="s11 <= 47.785\nsquared_error = 889.285\nsamples = 219\nvalue = 61.174"] ;
132 -> 133 ;
134 [label="squared_error = 1054.597\nsamples = 134\nvalue = 69.015"] ;
133 -> 134 ;
135 [label="squared_error = 378.929\nsamples = 85\nvalue = 48.812"] ;
133 -> 135 ;
136 [label="s11 <= 47.835\nsquared_error = 408.152\nsamples = 220\nvalue = 41.159"] ;
132 -> 136 ;
137 [label="squared_error = 420.477\nsamples = 133\nvalue = 47.383"] ;
136 -> 137 ;
138 [label="squared_error = 239.54\nsamples = 87\nvalue = 31.644"] ;
136 -> 138 ;
139 [label="s15 <= 8.443\nsquared_error = 2155.412\nsamples = 240\nvalue = 85.933"] ;
131 -> 139 ;
140 [label="s15 <= 8.443\nsquared_error = 2896.555\nsamples = 72\nvalue = 106.472"] ;
139 -> 140 ;
141 [label="squared_error = 2409.221\nsamples = 70\nvalue = 102.5"] ;
140 -> 141 ;
142 [label="squared_error = 72.25\nsamples = 2\nvalue = 245.5"] ;
140 -> 142 ;
143 [label="s13 <= 2388.075\nsquared_error = 1579.507\nsamples = 168\nvalue = 77.131"] ;
139 -> 143 ;
144 [label="squared_error = 2806.5\nsamples = 4\nvalue = 153.0"] ;
143 -> 144 ;
145 [label="squared_error = 1405.763\nsamples = 164\nvalue = 75.28"] ;
143 -> 145 ;
146 [label="s12 <= 521.105\nsquared_error = 2555.872\nsamples = 982\nvalue = 105.468"] ;
130 -> 146 ;
147 [label="s4 <= 1409.055\nsquared_error = 2172.96\nsamples = 409\nvalue = 88.963"] ;
146 -> 147 ;
148 [label="s14 <= 8136.54\nsquared_error = 2727.115\nsamples = 119\nvalue = 109.832"] ;
147 -> 148 ;
149 [label="squared_error = 3084.617\nsamples = 73\nvalue = 123.63"] ;
148 -> 149 ;
150 [label="squared_error = 1378.148\nsamples = 46\nvalue = 87.935"] ;
148 -> 150 ;
151 [label="s13 <= 2388.165\nsquared_error = 1693.53\nsamples = 290\nvalue = 80.4"] ;
147 -> 151 ;
152 [label="squared_error = 1806.176\nsamples = 205\nvalue = 87.902"] ;
151 -> 152 ;
153 [label="squared_error = 958.706\nsamples = 85\nvalue = 62.306"] ;
151 -> 153 ;
154 [label="s9 <= 9060.875\nsquared_error = 2495.946\nsamples = 573\nvalue = 117.25"] ;
146 -> 154 ;
155 [label="s8 <= 2388.145\nsquared_error = 2630.208\nsamples = 424\nvalue = 124.347"] ;
154 -> 155 ;
156 [label="squared_error = 2678.778\nsamples = 304\nvalue = 131.678"] ;
155 -> 156 ;
157 [label="squared_error = 2026.108\nsamples = 120\nvalue = 105.775"] ;
155 -> 157 ;
158 [label="s8 <= 2388.025\nsquared_error = 1562.682\nsamples = 149\nvalue = 97.054"] ;
154 -> 158 ;
159 [label="squared_error = 0.0\nsamples = 1\nvalue = 286.0"] ;
158 -> 159 ;
160 [label="squared_error = 1330.389\nsamples = 148\nvalue = 95.777"] ;
158 -> 160 ;
161 [label="s14 <= 8162.365\nsquared_error = 434.528\nsamples = 702\nvalue = 45.534"] ;
129 -> 161 ;
162 [label="s12 <= 520.475\nsquared_error = 443.257\nsamples = 402\nvalue = 55.067"] ;
161 -> 162 ;
163 [label="s11 <= 47.945\nsquared_error = 92.025\nsamples = 27\nvalue = 31.222"] ;
162 -> 163 ;
164 [label="s11 <= 47.72\nsquared_error = 68.15\nsamples = 21\nvalue = 34.429"] ;
163 -> 164 ;
165 [label="squared_error = 62.889\nsamples = 3\nvalue = 45.667"] ;
164 -> 165 ;
166 [label="squared_error = 44.469\nsamples = 18\nvalue = 32.556"] ;
164 -> 166 ;
167 [label="s2 <= 643.035\nsquared_error = 13.667\nsamples = 6\nvalue = 20.0"] ;
163 -> 167 ;
168 [label="squared_error = 1.0\nsamples = 2\nvalue = 25.0"] ;
167 -> 168 ;
169 [label="squared_error = 1.25\nsamples = 4\nvalue = 17.5"] ;
167 -> 169 ;
170 [label="s9 <= 9074.595\nsquared_error = 424.66\nsamples = 375\nvalue = 56.784"] ;
162 -> 170 ;
171 [label="s15 <= 8.432\nsquared_error = 520.767\nsamples = 145\nvalue = 65.138"] ;
170 -> 171 ;
172 [label="squared_error = 982.487\nsamples = 20\nvalue = 86.25"] ;
171 -> 172 ;
173 [label="squared_error = 364.166\nsamples = 125\nvalue = 61.76"] ;
171 -> 173 ;
174 [label="s2 <= 643.285\nsquared_error = 292.337\nsamples = 230\nvalue = 51.517"] ;
170 -> 174 ;
175 [label="squared_error = 277.435\nsamples = 199\nvalue = 53.523"] ;
174 -> 175 ;
176 [label="squared_error = 196.487\nsamples = 31\nvalue = 38.645"] ;
174 -> 176 ;
177 [label="s9 <= 9103.8\nsquared_error = 137.876\nsamples = 300\nvalue = 32.76"] ;
161 -> 177 ;
178 [label="s12 <= 521.365\nsquared_error = 118.174\nsamples = 158\nvalue = 39.513"] ;
177 -> 178 ;
179 [label="s11 <= 47.755\nsquared_error = 95.185\nsamples = 127\nvalue = 37.11"] ;
178 -> 179 ;
180 [label="squared_error = 78.585\nsamples = 63\nvalue = 40.952"] ;
179 -> 180 ;
181 [label="squared_error = 82.689\nsamples = 64\nvalue = 33.328"] ;
179 -> 181 ;
182 [label="s21 <= 23.279\nsquared_error = 91.842\nsamples = 31\nvalue = 49.355"] ;
178 -> 182 ;
183 [label="squared_error = 60.331\nsamples = 21\nvalue = 45.381"] ;
182 -> 183 ;
184 [label="squared_error = 55.21\nsamples = 10\nvalue = 57.7"] ;
182 -> 184 ;
185 [label="s9 <= 9120.955\nsquared_error = 52.608\nsamples = 142\nvalue = 25.246"] ;
177 -> 185 ;
186 [label="s7 <= 552.29\nsquared_error = 37.236\nsamples = 75\nvalue = 28.867"] ;
185 -> 186 ;
187 [label="squared_error = 25.686\nsamples = 11\nvalue = 20.636"] ;
186 -> 187 ;
188 [label="squared_error = 25.577\nsamples = 64\nvalue = 30.281"] ;
186 -> 188 ;
189 [label="s7 <= 553.01\nsquared_error = 38.724\nsamples = 67\nvalue = 21.194"] ;
185 -> 189 ;
190 [label="squared_error = 25.871\nsamples = 43\nvalue = 18.581"] ;
189 -> 190 ;
191 [label="squared_error = 27.609\nsamples = 24\nvalue = 25.875"] ;
189 -> 191 ;
192 [label="s11 <= 47.865\nsquared_error = 550.621\nsamples = 3863\nvalue = 25.681"] ;
128 -> 192 ;
193 [label="s9 <= 9095.87\nsquared_error = 703.403\nsamples = 1426\nvalue = 42.504"] ;
192 -> 193 ;
194 [label="s12 <= 520.915\nsquared_error = 739.718\nsamples = 1105\nvalue = 48.182"] ;
193 -> 194 ;
195 [label="s7 <= 552.725\nsquared_error = 426.865\nsamples = 707\nvalue = 40.025"] ;
194 -> 195 ;
196 [label="s8 <= 2388.205\nsquared_error = 255.528\nsamples = 492\nvalue = 35.165"] ;
195 -> 196 ;
197 [label="squared_error = 255.085\nsamples = 342\nvalue = 39.009"] ;
196 -> 197 ;
198 [label="squared_error = 146.027\nsamples = 150\nvalue = 26.4"] ;
196 -> 198 ;
199 [label="s14 <= 8151.86\nsquared_error = 641.15\nsamples = 215\nvalue = 51.149"] ;
195 -> 199 ;
200 [label="squared_error = 723.718\nsamples = 159\nvalue = 55.629"] ;
199 -> 200 ;
201 [label="squared_error = 187.923\nsamples = 56\nvalue = 38.429"] ;
199 -> 201 ;
202 [label="s14 <= 8141.99\nsquared_error = 967.356\nsamples = 398\nvalue = 62.671"] ;
194 -> 202 ;
203 [label="s8 <= 2388.155\nsquared_error = 1303.389\nsamples = 217\nvalue = 73.323"] ;
202 -> 203 ;
204 [label="squared_error = 1464.56\nsamples = 103\nvalue = 88.641"] ;
203 -> 204 ;
205 [label="squared_error = 754.215\nsamples = 114\nvalue = 59.482"] ;
203 -> 205 ;
206 [label="s14 <= 8157.995\nsquared_error = 265.382\nsamples = 181\nvalue = 49.901"] ;
202 -> 206 ;
207 [label="squared_error = 283.081\nsamples = 121\nvalue = 54.041"] ;
206 -> 207 ;
208 [label="squared_error = 125.381\nsamples = 60\nvalue = 41.55"] ;
206 -> 208 ;
209 [label="s9 <= 9122.54\nsquared_error = 85.307\nsamples = 321\nvalue = 22.956"] ;
193 -> 209 ;
210 [label="s9 <= 9109.915\nsquared_error = 54.963\nsamples = 198\nvalue = 27.773"] ;
209 -> 210 ;
211 [label="s11 <= 47.805\nsquared_error = 60.009\nsamples = 118\nvalue = 29.873"] ;
210 -> 211 ;
212 [label="squared_error = 51.421\nsamples = 70\nvalue = 32.086"] ;
211 -> 212 ;
213 [label="squared_error = 54.979\nsamples = 48\nvalue = 26.646"] ;
211 -> 213 ;
214 [label="s12 <= 521.155\nsquared_error = 31.419\nsamples = 80\nvalue = 24.675"] ;
210 -> 214 ;
215 [label="squared_error = 25.009\nsamples = 72\nvalue = 23.819"] ;
214 -> 215 ;
216 [label="squared_error = 23.234\nsamples = 8\nvalue = 32.375"] ;
214 -> 216 ;
217 [label="s12 <= 520.67\nsquared_error = 36.699\nsamples = 123\nvalue = 15.203"] ;
209 -> 217 ;
218 [label="s9 <= 9176.42\nsquared_error = 24.5\nsamples = 56\nvalue = 11.768"] ;
217 -> 218 ;
219 [label="squared_error = 16.68\nsamples = 47\nvalue = 13.149"] ;
218 -> 219 ;
220 [label="squared_error = 3.358\nsamples = 9\nvalue = 4.556"] ;
218 -> 220 ;
221 [label="s9 <= 9158.985\nsquared_error = 28.785\nsamples = 67\nvalue = 18.075"] ;
217 -> 221 ;
222 [label="squared_error = 24.414\nsamples = 50\nvalue = 19.84"] ;
221 -> 222 ;
223 [label="squared_error = 5.516\nsamples = 17\nvalue = 12.882"] ;
221 -> 223 ;
224 [label="s11 <= 47.975\nsquared_error = 198.741\nsamples = 2437\nvalue = 15.838"] ;
192 -> 224 ;
225 [label="s9 <= 9114.92\nsquared_error = 256.688\nsamples = 887\nvalue = 24.727"] ;
224 -> 225 ;
226 [label="s7 <= 552.335\nsquared_error = 265.625\nsamples = 715\nvalue = 27.67"] ;
225 -> 226 ;
227 [label="s12 <= 520.405\nsquared_error = 152.199\nsamples = 438\nvalue = 22.518"] ;
226 -> 227 ;
228 [label="squared_error = 99.349\nsamples = 255\nvalue = 18.714"] ;
227 -> 228 ;
229 [label="squared_error = 177.569\nsamples = 183\nvalue = 27.82"] ;
227 -> 229 ;
230 [label="s12 <= 520.755\nsquared_error = 336.656\nsamples = 277\nvalue = 35.816"] ;
226 -> 230 ;
231 [label="squared_error = 209.602\nsamples = 201\nvalue = 31.274"] ;
230 -> 231 ;
232 [label="squared_error = 473.8\nsamples = 76\nvalue = 47.829"] ;
230 -> 232 ;
233 [label="s9 <= 9132.635\nsquared_error = 33.89\nsamples = 172\nvalue = 12.494"] ;
225 -> 233 ;
234 [label="s12 <= 520.67\nsquared_error = 28.103\nsamples = 77\nvalue = 16.026"] ;
233 -> 234 ;
235 [label="squared_error = 18.635\nsamples = 55\nvalue = 14.273"] ;
234 -> 235 ;
236 [label="squared_error = 24.878\nsamples = 22\nvalue = 20.409"] ;
234 -> 236 ;
237 [label="s15 <= 8.486\nsquared_error = 20.275\nsamples = 95\nvalue = 9.632"] ;
233 -> 237 ;
238 [label="squared_error = 16.96\nsamples = 25\nvalue = 13.4"] ;
237 -> 238 ;
239 [label="squared_error = 14.576\nsamples = 70\nvalue = 8.286"] ;
237 -> 239 ;
240 [label="s4 <= 1425.61\nsquared_error = 94.484\nsamples = 1550\nvalue = 10.751"] ;
224 -> 240 ;
241 [label="s15 <= 8.488\nsquared_error = 112.194\nsamples = 765\nvalue = 15.061"] ;
240 -> 241 ;
242 [label="s3 <= 1596.96\nsquared_error = 154.663\nsamples = 217\nvalue = 21.899"] ;
241 -> 242 ;
243 [label="squared_error = 182.985\nsamples = 84\nvalue = 28.44"] ;
242 -> 243 ;
244 [label="squared_error = 92.675\nsamples = 133\nvalue = 17.767"] ;
242 -> 244 ;
245 [label="s7 <= 552.2\nsquared_error = 69.535\nsamples = 548\nvalue = 12.354"] ;
241 -> 245 ;
246 [label="squared_error = 48.511\nsamples = 421\nvalue = 10.696"] ;
245 -> 246 ;
247 [label="squared_error = 99.907\nsamples = 127\nvalue = 17.85"] ;
245 -> 247 ;
248 [label="s15 <= 8.508\nsquared_error = 41.473\nsamples = 785\nvalue = 6.55"] ;
240 -> 248 ;
249 [label="s21 <= 23.156\nsquared_error = 58.466\nsamples = 299\nvalue = 9.431"] ;
248 -> 249 ;
250 [label="squared_error = 38.692\nsamples = 241\nvalue = 7.884"] ;
249 -> 250 ;
251 [label="squared_error = 89.326\nsamples = 58\nvalue = 15.862"] ;
249 -> 251 ;
252 [label="s20 <= 38.545\nsquared_error = 22.77\nsamples = 486\nvalue = 4.778"] ;
248 -> 252 ;
253 [label="squared_error = 15.027\nsamples = 388\nvalue = 4.039"] ;
252 -> 253 ;
254 [label="squared_error = 42.698\nsamples = 98\nvalue = 7.704"] ;
252 -> 254 ;
}